{"position":null,"layers":[20,20,20,14],"neurons":[[-724.2439,-30.3955,-723.6638,-48.9385338,-722.6904,-28.3149223,-722.6002,-44.23198,-656.1876,-20.2038212,-618.952454,-2.84659243,-574.3347,-623.9223,0.0,0.0,0.8373552,0.020330634,9.681249,-6.743422],[-1.0,1.0,1.0,1.0,-1.0,-1.0,1.0,-1.0,-1.0,1.0,1.0,-1.0,0.6249728,-1.0,-1.0,1.0,-1.0,-1.0,-1.0,1.0],[0.6729033,-0.7023085,-0.210370347,-0.81196934,-0.0600778274,-0.200300768,0.691396654,0.1793763,0.82697463,-0.4326388,0.389730543,0.2628826,-0.0837486461,-0.3875987,0.7726247,-0.331463039,-0.938783467,0.3335149,-0.3160795,0.214179218],[-0.813014448,0.312689424,-0.2077582,0.522255361,0.661008835,0.301382333,0.648865044,0.383211762,-0.177605987,0.685632765,0.268954128,0.404616833,0.7194815,0.165584]],"weights":[[[0.307072878,-0.130167067,0.0288953185,0.0,0.256515861,-0.158014238,-0.0691643357,0.0,0.183530435,-0.194306836,-0.442720175,-0.07589382,0.0,-0.20640403,-0.09535378,0.488587141,0.0,-0.214624584,0.401834726,-0.20403713],[0.0,-0.4835924,0.0,0.0829106,-0.340084672,0.0,0.2765062,0.0,0.0,0.0,0.0,0.0256257653,-0.236581385,-0.1748268,0.0,0.0,-0.4786824,0.0,-0.440943718,-0.0858385],[-0.463616729,0.0,-0.386301517,0.463988185,0.288187981,0.158896983,0.0404101,-0.04894787,-0.389066219,0.08396691,0.460622549,0.0,-0.1777597,0.112610519,0.0,0.284104466,0.0,0.0,0.0,0.0],[-0.45482564,0.0,0.0,0.0236887336,0.249002159,0.0,0.0,-0.4682759,0.08584577,0.0,-0.246228635,0.0,-0.418635,-0.405231953,-0.430889,0.0,-0.09155482,0.247706875,-0.160136566,0.215922341],[-0.0878906846,0.1345887,0.427447319,-0.164860785,0.0,0.0,0.0,0.0,0.0,-0.0169232488,0.0,0.322136641,0.39271462,-0.3380345,0.05005628,-0.3393892,0.0,0.06243497,-0.1133011,0.351141572],[0.355991125,-0.3175397,0.0,0.0,0.101546466,-0.333057761,0.0,-0.191392049,0.0,0.134587392,0.0,0.0,0.0,0.0,-0.4541341,0.0,0.0,-0.330773354,0.336898923,0.0],[-0.236944854,0.0,0.159163177,0.0,0.0,0.176134884,-0.3444625,0.0,-0.009951413,0.275207043,0.0,0.0,0.4573698,-0.472829938,0.0,-0.380165339,-0.208747327,0.422855735,0.291229367,0.0],[-0.2586602,0.0,0.0,0.0,0.0,-0.3211409,0.107614219,-0.477997541,0.0,-0.08570284,0.359751,0.448439837,0.437935829,-0.3794334,0.4012277,-0.0165894628,0.0,0.105491221,0.0,0.0],[0.434901834,0.134907469,0.329938173,0.2001444,-0.197893679,-0.0265874267,0.0667884946,0.0,-0.3446294,0.1410204,0.0,-0.179321349,0.0,0.399281979,0.2659129,0.0,-0.3887341,-0.254778147,0.3626138,-0.439368963],[0.395819068,0.184800088,0.0,0.310262918,0.0,-0.007163465,-0.4304818,0.0,-0.0251153111,0.0,0.0,-0.421883941,0.0,0.0,0.316101432,-0.3167038,0.0,0.0,0.3765664,0.3217337],[-0.4749732,0.0,-0.254516959,-0.210812867,0.0,0.0,0.113882244,-0.08637923,0.0,-0.104104221,-0.3769828,-0.4782914,0.047304213,-0.0233225226,-0.409450173,0.0,0.105691493,0.07125443,0.0,-0.179799139],[0.0,0.0,-0.0783277154,0.0,0.0,-0.174148262,0.243709385,-0.4875331,-0.219569623,0.0,0.161802873,-0.377724767,0.0,0.0,0.0,0.0,-0.1310969,-0.48788774,0.0,0.0],[0.0,-0.405951977,0.0,0.0,0.0,0.0,0.0,0.0,0.0,0.0,0.273505569,-0.384243,-0.276376963,0.0,0.0,0.0,-0.230513275,-0.28949666,-0.303642035,-0.147229418],[0.432222128,-0.327262282,0.0,0.395180583,0.23395437,0.0,0.0376701951,0.0,-0.491822362,0.0,0.36683917,0.425974369,-0.461691618,0.0,0.447211862,0.0,0.0,0.0,0.0,0.41808033],[0.0,0.162016734,0.0,0.338593483,0.3239329,0.489673018,0.0,0.2612722,-0.4127748,-0.43999517,0.0,0.206333145,0.4423381,0.436188817,0.381258368,0.0,-0.0836032,0.0,0.0,0.0],[-0.2503878,0.0687919259,-0.277843237,0.0,-0.251006484,0.0,0.08425158,-0.267302036,0.0,0.100086629,0.0,0.380259037,0.0,0.0,0.0,0.0,-0.439158916,-0.3528179,-0.05533868,-0.00538772345],[0.07492787,-0.208932936,0.0,-0.162523851,-0.35908246,0.295614481,0.0,0.0,-0.101149261,0.0,0.350251555,0.0,0.0,0.393688917,0.0,-0.293669581,0.0,-0.0858168,-0.189370573,0.450599074],[0.363880754,-0.0817983747,-0.496224642,0.0,0.0,0.0,-0.0411675572,0.0,0.1787604,0.00116807222,0.0,-0.1975076,0.146864951,0.0,-0.102538049,0.0,-0.01949066,0.0,0.0,0.0],[0.424754143,0.0,0.0,-0.3515259,-0.22401391,0.124884427,0.0,0.120829523,-0.0255329013,-0.4924612,0.0,0.0,0.0,0.004537165,0.423228264,0.4699098,0.0,-0.4506042,-0.120628893,0.2127838],[0.127573356,-0.3002665,0.0,0.0,0.0,0.428984761,-0.06023997,-0.260043383,-0.394346237,0.0,-0.1027022,0.0,0.0,0.0,0.362579346,0.3748107,-0.00143021345,0.421265364,0.0,-0.4309076]],[[0.0,0.3740908,-0.07523209,0.378021717,-0.0246626735,0.491711378,-0.351561666,-0.3159436,0.273368478,0.0,0.289663553,0.0,0.0,-0.462138176,-0.210902274,0.0,0.0475191474,0.0,0.0,0.0],[-0.1908223,0.0,0.0,0.0,0.0,0.3665626,0.0,0.0,0.0,0.0,0.0,-0.182074964,0.246622786,0.0,0.0,-0.4563632,0.0,0.09114319,0.484802127,0.0],[0.3187654,-0.3452984,0.065983355,-0.1710919,0.0,-0.339133739,0.40595293,0.211569175,0.0,-0.1671533,0.0,0.3028072,0.43831265,0.459061861,0.0,-0.338539243,-0.497687936,0.0,-0.2982012,0.219835028],[-0.114301145,0.0,0.0,0.0,0.0,0.0,-0.2377829,0.415136933,0.0,0.0,-0.145559251,0.0,-0.3007784,0.0,0.259217262,0.4119029,0.0,0.0,0.41331172,0.0],[-0.1031329,-0.0451665521,-0.03235811,0.0,-0.2998699,-0.2006858,0.0,0.161512911,0.397965431,0.179646716,-0.08841246,0.0,0.0,0.0,0.170961961,0.0,0.27679503,0.0,0.0,0.32968688],[0.0,0.4040774,0.0278294683,0.0,-0.2666347,0.0,-0.2444877,0.0,0.0,0.0,0.0,0.0,-0.306913018,0.0,-0.0421655774,-0.0601429343,0.0,0.0,0.4473101,0.0],[0.0,0.0,0.447464228,0.442441583,0.0,-0.07559484,0.0,0.217149958,-0.3663802,-0.2891345,0.0,0.06991905,0.194513187,0.0,-0.412331462,0.0,0.0,0.496386528,0.142848477,0.200287446],[0.441758871,0.180451378,0.08677572,0.0,-0.00173836946,0.0,0.452725053,0.395244956,0.0,-0.0511892438,0.0,0.0,0.283823371,-0.383782148,0.0,0.398503184,0.0,0.447356462,0.3247552,0.1602851],[-0.148205578,0.260187984,0.09147018,0.150063619,0.216973647,0.0,-0.150258839,0.0,-0.114784658,0.169250429,0.0,-0.143366516,-0.382818818,-0.07015973,-0.2514137,0.0,0.0,0.0,-0.3860706,0.0],[0.432681322,0.0,0.0,0.07117218,-0.287663937,0.0609734654,0.178255066,0.232308969,0.191407189,0.274493217,0.145853341,-0.461444378,-0.444159269,0.41984427,0.0,0.0,0.0,0.09852773,0.2843597,0.115669429],[-0.144435108,0.4488325,-0.206302583,0.4744066,-0.3978653,0.03839463,-0.0482820868,0.152564585,0.0,-0.3223145,0.0188856721,0.0,0.1544256,-0.34806025,0.444743276,-0.379867435,-0.2391908,0.0,-0.176498592,-0.340735316],[0.0,0.0,-0.0281422734,-0.0641770959,0.346050143,0.0,-0.08430594,-0.25041306,0.0,0.330641747,0.0,0.0,-0.499588847,-0.137497649,-0.3994764,0.0,0.02985388,0.0,-0.0159323812,0.0],[-0.221333563,-0.339799166,0.33280623,0.0,0.0,0.475626469,0.218538269,-0.193592608,0.0,0.0,-0.174812615,0.139561117,-0.288743138,-0.3303647,0.135197982,0.210380778,-0.161905944,-0.05154735,0.0,-0.358960748],[0.211318955,0.4208026,0.327233434,0.0,0.0,0.137484491,0.0,0.0,-0.06283933,0.0,-0.2980218,0.0,0.0,0.314106,0.0,0.0,-0.169761717,0.0,-0.0371542573,-0.465831161],[-0.213868678,0.353217363,0.0,0.202063784,0.0,0.388698936,-0.09411532,0.0,-0.326393843,0.0,0.466308236,0.3168639,0.0,-0.264633417,0.0,0.0,0.0,0.0,0.0,0.0],[0.179859146,-0.432441831,-0.384282231,0.166627392,0.0,0.0,0.0,-0.103017867,0.0,0.0,0.3061291,-0.325469851,0.425162315,0.2572993,-0.333769441,0.217173323,0.0,0.0289526582,0.338856936,-0.440680742],[0.044337213,-0.294912219,-0.408323884,0.0,-0.178937733,0.0,0.0,0.378488064,0.0,0.0,-0.111766994,0.0590283275,0.0973963141,0.3148204,0.0,-0.3558302,0.0,0.0,0.0,0.0],[-0.189629778,0.3069247,0.0898023248,0.0,0.0264034867,-0.396821022,-0.312472343,0.0,-0.0623179078,-0.411488533,-0.082241,-0.113878429,0.0,0.0,-0.08372837,-0.41339004,-0.0521401763,0.0,0.0,0.297530532],[-0.2822802,-0.380954385,-0.2924266,0.0,-0.2644236,-0.3800354,0.0,0.132814154,0.0,-0.0601272,0.184458122,0.0,-0.244048536,0.0,0.0,0.0,0.0,0.3514706,0.3321303,0.263964176],[0.0,0.0,-0.370174766,0.156421408,0.0,-0.459487557,0.0,0.3184359,0.1807587,0.0,0.172349632,0.0,-0.41614306,0.286025763,0.0,0.0,-0.390095,0.0,-0.4546671,0.0]],[[0.0,0.462601662,-0.439910054,0.1359862,-0.329767346,-0.112189233,-0.464733,-0.441470981,-0.4206264,0.0,0.0,0.0,0.0,-0.240310177,-0.207311332,0.395118475,0.0,0.161643445,0.0,0.266408324],[0.0,0.0,0.38006866,0.0,0.0,-0.387888551,0.0,0.0,0.4748515,0.0,-0.275596976,-0.150868639,0.45746088,0.0,-0.232788667,0.0546337962,-0.2886356,0.0,0.0,0.212327823],[0.0,0.0,0.1566007,0.0,0.183030948,0.02898246,0.0,0.4351822,0.0,-0.397573233,-0.4135511,0.251345754,0.0,0.0,-0.403204679,0.115622938,0.0,0.0,-0.106937945,0.0],[0.0,0.0,0.0,-0.4480977,-0.1282987,0.0,0.420534372,0.0,-0.4449004,-0.117306292,0.498527169,0.0,0.0,0.286192417,0.255970359,0.0,0.0,0.0,0.1634373,0.0225383639],[0.245786533,-0.06768125,-0.164015949,-0.182136238,-0.38123548,0.029383719,0.0,0.178662956,0.0,0.0,0.0,-0.107040346,0.399432182,0.0,0.472613454,-0.492082953,0.0,-0.47982645,-0.137877762,0.0],[0.0,-0.176904976,0.0,-0.05137652,-0.326034069,0.250526667,0.307088733,0.0,0.0,0.486626148,0.0,0.179167852,-0.281294465,0.0,-0.00421625376,0.0,0.0,0.330881357,0.233606562,0.326696634],[0.185725555,0.0,0.0,-0.267888546,0.235558927,-0.212956965,0.0,0.0,-0.1428511,-0.419958472,0.0,0.0,-0.221452415,0.0,0.414479733,0.0,0.0,0.0,0.0,0.0],[0.340370655,0.229255855,0.0,-0.0445181727,0.0,-0.380661368,-0.216822326,-0.29790926,0.04299146,-0.468261957,-0.236716092,-0.344510436,0.121018708,-0.186149776,0.340270638,-0.0215509534,-0.08526951,0.0,0.23047775,0.150170073],[0.4245931,0.0,0.0,0.0,0.0,0.0,-0.05133134,-0.0835585,0.3517878,0.126055822,-0.240754545,0.0,0.0,0.143454775,-0.412214637,0.272451758,0.0,-0.2785387,0.0,0.0],[0.292414427,0.124002159,0.0,0.0,-0.3968457,0.201896772,-0.367311954,0.314609647,0.0,0.0,0.185094222,-0.235941112,0.0,0.0,0.375751138,-0.06954259,-0.428110957,0.46585834,-0.200455725,0.0],[0.0,-0.426945329,0.0,0.180610761,0.0,-0.305952549,0.0,0.3452208,0.1611241,0.171412766,0.0,0.327751875,0.0,0.121925771,-0.04652685,0.229894266,0.0,-0.147176445,-0.19798559,0.0],[0.0,0.0,0.199158654,-0.128182113,0.339052916,0.0,0.0,0.0,-0.463999033,-0.161280379,0.156573519,0.0,0.0,-0.195843041,0.4320048,0.357175469,-0.402356625,-0.08623177,0.0,0.0],[0.3307575,-0.00660282373,0.24505876,0.0,0.0,-0.4643836,0.0,0.0,0.401574731,0.0197270513,-0.344773769,0.0,0.0,-0.354673266,0.0,0.0,-0.235689938,0.2697922,0.0,0.0],[0.07984978,0.0,0.449524879,0.0,0.0,0.0,0.00521165133,0.0,0.0263872743,0.0,0.0,0.0,-0.227745354,0.0,0.2857983,-0.198876441,0.08793229,0.0,0.0,-0.190147743]]],"fitness":6.811248}